[{"type": "Input", "in_shape": 30}, {"type": "FC", "in_shape": 8, "weights": [[0.5693466303852543, -0.7467522864007318, -0.8454057148400886, -0.32747175467410405, -0.04077781395111178, -1.5324805911911774, -1.651608631083442, 1.0465672659090826, 0.10150941973506901, 0.3600525235009495, -0.054898690340707795, -0.15365493635261368, 1.8549219889627817, -0.6281430200669226, -0.7577800853755965, -0.20173134692587716, -1.3569107167286154, 0.05971665504997536, -0.8727036313633089, 0.5044709410250193, -0.35902886567668074, 0.33530857299366384, 0.2378477551212124, 1.8795783686941552, 0.18826595018234799, 1.1485894807013295, 1.8185359747565526, -1.313028457058133, 1.5790381868911312, -0.3130063390988116], [-0.9733228520761077, 1.149923756647958, 0.9851003864139413, -1.7294943978394424, 0.9619463759326289, 0.21095123391622697, 0.467418305432052, 0.7097854534450351, 0.5475893385032606, -0.2666257328751735, -0.04967066000095422, 1.6913903197925968, -0.6402550397823028, -0.35148014991703713, 1.2051093693406543, -1.3943756186952632, 0.42457538937280964, 0.7852852054677717, -1.9520117455537642, -0.5831406953431476, 1.3040738739906235, 1.067915019269238, 1.5316067309884058, 0.3662078025520963, -0.12957428544594435, 0.621014379098857, -0.08138358112376312, 1.2905840764484564, 0.8600186896077968, -0.8466095628944228], [1.5848371521123152, 1.2615394739093964, 0.9025586467456078, -0.25791048763383906, -0.8254716735527122, 0.36428967662949313, 0.3089748433576537, 0.5601934740449841, -0.4857776393582703, -0.8618953024166158, 1.3014383506123655, 0.45134854415395037, -1.055294845128521, 2.1053264528050617, 0.3970918370921831, -1.7428787458617252, 0.1956931092631421, -0.4475329679530157, 0.28495161449524886, 1.0769431489761538, 2.0155242516290963, -0.42744623892540307, 1.2408495549772167, -0.12044532105371361, 0.8479743521145584, 2.02758950482546, 0.3656890389873897, -0.14792160479020333, 0.6407150366581137, -0.9676093389820721], [0.09483476825198699, 0.6410004866743879, 2.375162618950372, 0.018237061982577, -2.1418577169745405, 0.8224535896555295, 1.7847904227080704, 0.3695417600709949, -0.055744218206666266, 0.18806794015666584, -1.5101626696064905, -1.2056661018279715, 0.33498814696310486, -1.030726182867378, -0.19575599650137795, -0.0019816043047321845, 0.6053643038092875, -0.9914025017206631, 0.7528390481994467, -1.0354705217709683, 1.2938186303300618, 0.16405783257920148, 0.6649396950531388, 0.5204224031633922, 0.01352689806770699, 0.09747255925853344, -0.28963934759899107, 0.0033036174039078156, 0.6218567616369586, 0.1349130572199161], [-0.06556876761371641, -0.5811089534409419, 0.04548485181089071, -0.5526097860497174, -0.052272641040284375, 1.166474941715247, -2.7242969528727072, -0.5727680972675315, -0.3320724290607579, -0.5852151797912023, -1.235430938019593, -0.5735579023798756, -0.9833045179550167, -0.4621596052187534, -0.8605143318564434, 0.08635283613863372, 0.9701501733885779, 0.6242909410529487, -0.6120036991853324, 0.8712933645978685, -0.9111888733208031, -0.47145149084919397, -0.10586871825982716, -1.112194213460709, -1.3556551796376528, -0.29725601612439195, -1.3888277544715875, -1.3044952977123139, 1.0721176619015842, -0.7999018471753726], [0.07398140068301307, 0.5330154341278921, -1.0972351100425968, -1.4228430043194407, -0.5416867306532833, 1.8708214822975326, -1.0255666140983155, 0.01215781975583864, -1.2348422321669665, -0.5718290070316991, 0.040383389816143186, -1.023635658095412, 0.07969971383739154, -1.3450884513307104, 0.8092188817700926, 3.119359436735969, 0.6057509914307546, -1.848090848989151, 0.3872485899191836, 0.7268114012415328, -2.184969604368601, -0.4363288070939327, 0.14925011060819526, 0.26012148450853684, 0.27442524093208964, 0.6126205788039275, 1.3692905494883785, 0.20445893754323582, 0.22123246322073414, 0.2693444427829927], [-1.8241189276239904, -0.30066433574609475, 0.8668827243460002, -0.18128918193208132, 0.523245624732848, 0.5621002769077235, 0.5652502024860884, 1.3053431733923406, -0.7153039472762642, 0.09006690221109703, -0.7154241554569913, -1.4772837474441665, 0.5295008862472748, -0.9476367307976404, 1.3558840669247223, 0.49475761800330925, -0.16352096326559024, -0.8883865123947695, -0.3712333867258733, 1.443102679894265, 1.9569644576344818, 0.5368707599029051, -0.47224665228907675, -1.080321868603285, -1.3202787364237107, -1.5787705239701453, -0.1356078383169337, 0.4728370126094762, -0.22600826037733468, 1.109239861626184], [0.7586943776812897, -1.5456856165856305, -1.9541919694309575, 0.057334355580046424, 0.08335882772096033, -0.8622011403473117, 1.1341355320465634, 0.036833668155159864, -0.9850392837899815, 0.5954188388748599, -0.3794072350656921, 1.8642559786062898, 0.011287975634308847, -0.1988244773027288, 0.006953870229781528, 1.2795086988111717, 0.4007301367834123, 0.1373606596963289, 1.8057292969788443, -0.6550727724071044, 1.3136325175779224, -1.2023785216196694, -0.12325446625829277, -0.2762109916824453, -0.40660349914470656, 1.334497356966462, -1.5544485608555247, 0.003416721823209891, -0.9495232625910281, -1.7124856810504951]], "biases": [-0.26807323497614827, -2.4387485475449715, -2.0544827059409307, -1.2952706467846729, 3.3318770099299937, 0.01676673338192912, 0.5056167049659209, 0.45586902727896195], "activation": "sigmoid"}, {"type": "FC", "in_shape": 4, "weights": [[0.07654308106813623, 1.1503606868219947, 0.9166427453054089, 0.31329603642713033, -0.9033802639533788, -0.15598349259177754, 1.4437127844463253, -2.628567977902785], [0.9597951799401313, -0.3909350705554275, -0.28662706811873273, 1.1784631571291804, -0.6640080413535967, 0.21045001297705196, 0.957287160236278, -0.008225578075803014], [-1.1428956603541505, -2.2605458304018615, -3.3151635067598026, -0.5878577884474785, 3.7074249980956107, 1.6367784435509183, 1.6162918541942233, 0.824005108327793], [-1.2801507124497493, 0.21066446069298775, 1.4388059964971505, 0.6627783546349709, -2.28882710093599, -1.5431826375218132, 0.0835512877083225, -0.3994738519567822]], "biases": [-1.029697012122092, 0.18388915255550192, 0.5915398215283022, 0.8613021167700642], "activation": "sigmoid"}, {"type": "FC", "in_shape": 2, "weights": [[1.794354380572994, 0.21812546552104023, -3.748345295920023, 1.6789599431609734], [-1.8604199079329096, -1.2121712350329534, 4.686332609652672, -2.3564914379721547]], "biases": [-0.5919796000567386, 0.0434083769406399], "activation": "softmax"}]