[{"type": "Input", "in_shape": 30}, {"type": "FC", "in_shape": 8, "weights": [[1.0412174921835888, -0.43774560171226645, 0.41778938991204956, 0.9622448024264101, 0.405670729036384, -0.030648498434569415, -1.1318493382829073, 0.8333798472539617, -0.584942660182214, -0.7654480782234502, -0.8161661058797534, -1.0272227990788183, 0.9565875744094566, 0.8722668114597942, -0.23094201279952378, 0.5786000717448868, -0.6557358041871684, 1.697259481397412, 1.8058410167205585, -2.532095923734561, 0.2830050169400771, -1.3055539771133566, 1.1793551522235997, 0.4823651978317296, 0.6463294867114328, 0.04192492838614286, -1.7504072365341223, 0.7284664691854765, 0.7240270106754411, 1.8766251473640243], [1.2903938430552357, -3.1217248713217116, 0.3789701594171416, -1.0190295699904148, 0.07827229521743725, 0.43373997394698116, -1.9696974101668698, -1.1889918905914167, 0.14102010900936848, 0.11992890172688213, -1.849722301511371, 0.4000847784740552, -1.4698567200917803, -1.3238899358011613, -1.2473970624420245, 1.407446543923334, -0.3999197596295381, 0.8665348877451683, 0.7612880687818642, 1.4031554375568287, -1.058740088907714, -2.860435268321201, -2.492258490414832, -0.9012636549399554, -1.2374328669574142, -1.8053280092002615, -0.34984272818887663, 0.41638507857618606, -0.10297512739821557, 0.4127810197435751], [-0.6427533507978391, -0.3530525328819449, -0.603976031170654, 1.9009133003215997, 0.8661403730148562, 1.2553462134221096, -1.5588223703477042, -0.7453094429273778, -0.23116387318698645, 1.0782620231614273, -2.9821044714855125, -1.0844530121522604, -0.16295107557907867, 1.2131259830795542, -0.2509644765297797, -1.3474126105919246, 0.9909990676769104, 2.4139875742695738, -0.361934549661199, -1.4353738280676864, -0.7779550109535097, -1.8814508506289973, 0.8471029754655347, 1.1647714997275118, 0.21502670984563646, -0.9082206238630494, -0.19341763845809365, -0.03890200725252625, -1.4838544094586608, -0.13628965408118043], [0.9459775580234523, -0.1451686457972402, -0.9526371459879033, -2.1823670551141965, -0.5751983466566616, -0.06084288300736259, 0.3991611641570457, -1.2962165294391244, -0.2933666128494476, 0.6423309506230314, 1.3373208326930248, -1.1440915109724739, 1.7927902773596083, -1.1609194766285136, 1.5275576731414509, -2.2066447035498284, 0.27726867387314813, 0.022401288817778198, -1.3256501111634897, 0.7886902719681315, 1.5694482489945023, -2.0615265998228374, -0.25828701722997843, -0.046071866136879934, -1.1374264553314526, -0.6768996243103599, -2.324655184305836, -0.954508594181603, -0.49370778799758197, 0.3764520477747847], [0.7179459884250095, 0.9597486923222361, -0.5364973649869463, -0.630432842867107, -0.5454888665376028, -1.262298518529352, 0.146485447434734, 0.5256627089377512, -0.33310408331796915, -0.974565593998278, -0.33183249777241786, -0.21859849535349332, -0.49435168524842893, -0.9828490946187308, -1.0409418607106662, 1.016367810315283, -1.0509787924771778, -0.9081161756209186, 0.07060083411851502, 0.9219576069988296, -0.16827529741876784, -1.0310029090662771, -0.6848890925662875, -0.09384253819569037, -0.4287818580458558, 0.6780750535723227, -1.0389125436557667, -0.3504240718398543, -2.2923026666743396, 0.17902089132759702], [1.521445693907261, 2.539593559102269, 0.749976332942541, 0.2475789510282256, 0.9577731838084941, -0.16130225320343355, 0.8067530511464794, -0.5525559785067353, 0.42785288044791064, -2.1465948755275877, 1.940856692894853, -1.0917881378949599, 1.7438577458217999, 2.853790285041174, -0.3491617249667766, -1.3093060566647912, 0.385562342607599, 0.784324759712653, -0.8677009375623266, -0.4112234956603406, 2.3893504736807363, 1.5328300645070527, 0.08556962866929199, 0.2013280881467213, 1.5121587235948304, -0.903617450249091, 2.0176807047037983, 1.1569226891902218, 1.924276118275772, 0.6552303111507894], [-0.09813910627253435, -0.7599532395289974, 1.2983120310165424, -0.913286922027332, -1.5549720803862448, -0.3702839316064671, -0.5163276629111231, -0.08816828301535704, 0.06836327444807007, 0.5510620766420976, 1.7249286078489798, -0.17972185764998574, -0.5679329939680006, 0.19004220250060602, -0.24399782612038273, -1.0962696946783688, 0.21877618809511257, -0.03147104723311757, 1.3998228320293857, -2.4564100065837033, 1.0497942399061564, 0.9557867181388866, 0.3620208767376065, -0.33717472344538524, -2.1872750102255716, 0.7004793055248495, 1.0965139909270412, -1.7352277461475654, 2.9916754137042, -1.5208921637735617], [0.7698122728839294, -1.100484031498319, -1.0229033394065, -1.9113179140921295, -1.2609819480503557, 1.3681204820798845, -0.9172200871942017, -2.705442117987188, 1.0309774128291658, 2.856905276406353, -3.4769742623415474, 2.1428071003134184, -3.4225984785824553, -1.863139668831765, -0.45656355374781876, 2.578395177709443, 0.5842520754408396, -1.5778550690543425, 0.7349309105912867, 0.5912573288945961, -1.8127286038437436, -2.080123435178033, -0.6696397612581538, -2.0212205005817903, -2.877658426041982, -0.3064835180181714, -0.770149645841407, -2.4972027148247498, -2.669307138140043, -0.052630856643823304]], "biases": [-0.03371781980024126, 3.026440778607371, -0.6475223968014474, -0.6203362393329962, -1.267655375474793, -5.423870544183716, -0.43963848898886493, 5.756345456405376], "activation": "sigmoid"}, {"type": "FC", "in_shape": 4, "weights": [[0.36673669402687514, -1.655266628025454, -0.21926891403354778, 1.3072641198873798, 0.6913075173501186, 1.1222925474341348, 0.26545907512916206, -3.9938067618286537], [-1.0963865502815466, 4.3567118143800325, 1.2674964503553752, -0.9654028077358536, 0.0611483748130896, -5.025130493787323, -0.5793830038925274, 5.854040068793233], [-1.0194611678626313, 0.37221257797823326, -0.9112143520152018, -1.1670623065615648, 0.698716900835903, 1.3025543985545285, -0.7007273929109868, -0.3147741250814873], [0.9683196801719997, -1.7597568346027779, 0.07623917710944991, 0.9631372669129628, -0.02959773785972747, 2.4526469179470003, 0.09693641122237298, -1.6300521418892815]], "biases": [0.4359239144191259, 0.9738062543892062, -0.908967679314219, -1.5829923604144682], "activation": "sigmoid"}, {"type": "FC", "in_shape": 2, "weights": [[3.5963670530984406, -4.526629040117789, 0.615211535335296, 3.0410301168413176], [-1.0573258642086607, 4.201787684844457, -0.05677076698466959, -0.768433469971412]], "biases": [1.6020865155497461, -1.2019666345933013], "activation": "softmax"}]