[{"weights": [[-0.8913411325777054, -0.4421524060602159, 0.1344687531094219, 0.46087884265741574, -0.9340863272333215, 1.1785997113605369, -0.5177110435128307, -0.06994881493262049, 0.007930677641672577, 0.5276480885183776, -0.5850041759788632, 1.2211115612713925, -1.3277007212425587, -1.297053676863158, -1.145555606823076, 0.36861896826507795, 0.0010708294173229764, -0.12990455327048722, -1.1771911166052296, -0.022369988974512867, 0.2210995115221995, -0.4487785321125402, -0.684049230443939, 1.381903538773696, -0.6262733742775803, 1.3693800358891488, -0.0697304249134039, 1.7144151958122016, -0.6101103692417741, -0.6782992616032201], [0.2886525761642127, -0.9107950050767535, -1.2856767991096694, -0.44621230731426037, -0.6652683298098415, -0.985368253695965, -1.49160578595842, 0.045643993984256656, 0.042854058839751394, 2.624787178733745, 0.5157904065898248, 0.293040616783944, 0.19405585333557315, -0.5874352842235093, 0.11227602038102762, 0.6737549182214659, -0.3301873640499211, 1.3714400380557399, -0.45075431133292804, 0.6792134169667542, -0.37716692026178705, -1.0990134371864309, -1.6828442283859701, -2.261238833794076, -1.1451222374047525, 0.0644167795884611, -0.44058204109313787, -0.1730757844678679, 0.7594567704559464, 0.17908300184290907], [-2.0389305837086917, -1.9761799902822765, 0.0014918923600190735, 0.019661258996348904, 0.027420658299288504, 0.9463472426316815, 0.7815331767060312, -0.7083509296284168, 0.0030478060949892666, -0.05499651234595804, 1.3953261047403545, -0.5166476165787816, -1.978546299569704, -0.28211901999051625, 1.251350795207702, 0.19997320523647802, 0.25246531534990263, 0.21244498959765665, 0.1840625522398487, -0.047938159507365664, -0.3499111991345913, 0.37916936380775823, -0.7879267326683957, -0.6979918432962532, 0.14526079520371837, -0.23736809050429433, -1.074367064437542, -0.6475299539503023, -0.705419535209388, 0.43089577382314437], [1.3742966455672057, -0.8919456028529377, -0.10078942817334784, -0.011040851107944118, -0.5964303653095109, -1.954408762299943, 0.442492555582211, 0.9740313678887659, 0.9792523275514333, 0.4177841710359964, -0.327997813305669, 1.3555176934613204, 1.3702009001696966, 1.110122945359331, 0.08203548625741823, 0.9818462707297554, 0.4712839611524244, 0.6713307861784364, -0.09340536373490005, 0.6158314813075109, -0.8997383949809821, 0.541701901235667, -0.6338860741152279, -0.9026140412305977, -3.2015682405593755, -0.16288074416242745, 1.101815252765727, 0.29450064851318364, 0.7255825527102897, 0.6590311623385495], [1.1213066485368683, -1.3172054880486108, -0.8242678650899746, -1.3045714598134073, -0.4881086190009585, -0.494202972907597, -0.076744972343762, -1.0638835839979561, -0.693478831599712, -0.6798928689497926, 0.177856616183756, -0.33712662009204797, -1.8106138625212196, -1.065941285748913, 1.038493438054591, 1.794814405207843, -1.0304596312831538, -1.1768658855386727, -0.16856532190362217, 1.418093904132358, 0.7269169941512672, -0.675106079570698, 0.5100451670310079, 1.0420863682538832, -1.321561592484115, -0.5346138029215358, 0.6914736825639852, -0.07200952146743378, -0.273605613220872, -0.18070629895463547], [1.3797343456896207, -0.23357486985083648, -0.5892101675803565, 1.2145450988919082, 0.43941218697938295, 0.6878449949150223, 0.3444602829659148, -0.13270642534326263, -0.19357823284866588, 0.197757936932502, -0.1393777951226743, 0.28361472402961857, 2.110442219978418, 1.6453059109920112, 2.0073885312346147, -0.3877215659080193, -0.3846449114572993, 0.6725105342123495, -0.16609762610045814, -0.7489837016481414, 0.011086301764080523, 0.2447631917131298, -0.35401682384155964, 1.3508727790525517, -0.7938190722388769, 0.9617632543304206, -0.4637786458281116, 2.05482623556207, -0.30617951535050497, 1.411219081840399], [-1.5488387903910859, 0.8927152131051979, 1.719970405474769, -1.3450410748014037, 0.7669704054534414, -0.3381903311280052, 0.5714684368800731, 0.7127408095262237, -0.12128426334353655, -1.1505005777866046, 0.9796362809599798, 1.7540798860324738, 0.5009777415764224, -0.7769518221650015, -0.5095555626932406, 1.3475501340080578, -0.9117619396724086, 0.4183031333079612, -1.693448208273216, -0.3394093038022924, 0.49230485782215105, 0.9583171447060622, 0.18552285898894835, -0.44318851161267153, 0.4521925884405161, -0.4710430024981274, 0.31053801506056744, 1.0900525236774574, 0.08625247924954545, 0.5532507369432043], [0.9246703651745699, -0.36998342922191435, -1.271627713504081, 0.673012319657444, -0.2542452803242701, 0.11813307598665074, 0.12497416641234911, -1.9329004506214467, 1.2803282973122645, 1.349262325412613, 0.13135906316147927, -0.33632262043590516, -2.173416162237171, -0.9502165030412546, -0.1947476808118646, 0.552865667743981, 0.5718015026778047, 0.8083924283288112, -0.42416487911122447, 0.5875921154027878, -2.8040827744788714, -1.0748320511377907, -0.41284582375158074, -1.3782537542928397, -0.74637817972755, -0.153932170254327, -0.5346423824734962, -1.0086272657592268, -0.6528257495497521, -1.7841863698345]], "biases": [-2.0726884708635755, 1.6742348648178647, -0.2871851654735094, 0.8154340262116684, 1.4711062743294983, -2.0251588804217047, -0.29789717490695933, 2.47764674491113], "activation": "sigmoid"}, {"weights": [[-0.6680761179873697, 2.0238334504164004, -0.36157406951169807, 0.31425406426722086, 0.8798745316775899, -0.4126295057355784, -2.3376554327937704, 2.0921733375321305], [-0.6109918524595067, -2.4561278601378373, -1.5014579591223003, 0.6713473844771396, -2.2230109131848748, 2.825854702112167, 0.8569817807988276, -3.765214162511385], [-0.5543173822944293, -0.04389250246135043, -1.3089258844401497, 0.5978801920205146, 0.6703264063449763, -0.5617006394013044, -1.7021580661260902, -1.1292118577587558], [-1.2675852427293706, 0.23623247129308175, 0.08305794402990647, 0.7910558746797626, -2.5670265785102138, 1.4716298275545225, 0.4667479821096733, 1.7105056043027314]], "biases": [0.16923507817881706, 0.48436184768468343, -1.2987940118460342, 1.0435043138368956], "activation": "sigmoid"}, {"weights": [[-1.9964250993749684, 3.9227153495609444, 0.8384638478819025, -0.8167024722882948], [3.090184384936061, -4.772452927387673, -1.5490585142168902, 0.008252206080260394]], "biases": [-0.049051340009837276, 0.8458738775422492], "activation": "softmax"}]