[{"type": "Input", "in_shape": 30}, {"type": "FC", "in_shape": 8, "weights": [[-0.15907282219781074, -0.11143889178646141, 0.4294072728972322, -0.17155222204493226, 0.17602164610369705, 0.33148142328865604, -0.9010367809486775, 0.7435509716590443, -0.9081110627799136, -0.2890143113328478, -0.10655943501736105, 1.22058797188563, -1.1446987526995929, -1.5182782450973433, -1.0447768793436167, 1.8495128050353682, 1.353600347827501, -1.0139151062801317, -0.15740458781957886, -0.09890624662675053, -2.0734645263477107, 0.47865325174113815, 0.3627343138154077, -0.1616971789805838, -2.870383077336027, 0.1802282543697207, -0.7417031693700564, -1.099128057194072, 1.1581421331078994, 1.1358178942293289], [2.345722390052347, 1.511967907417745, 1.527894203042354, 0.2329473156162033, -0.21117079400213173, 0.8624351985579424, -0.16881311516160666, -0.08595093533596176, -1.661659910886024, -1.590977012887202, 1.5683571371948268, 1.035190675834472, 0.2720128201220386, 0.8396457479347338, 1.037762103626899, -0.4321609430962559, -0.14055566416648801, -1.6276249214750633, -0.05761279266199518, -0.9480809818362, -0.0904713728832145, 0.9829440662764668, -1.8642978733437503, 1.4420215115688702, 2.0790887410304415, 0.6207085293805765, 0.777848313244752, -0.3440489763801011, -0.2029427318822677, 0.8597926612053285], [-1.8968873317612478, 0.0044316549042051285, 0.24935747304800826, 0.4061629210206367, -1.6334022920934668, 1.6000715345273884, 1.6388800295864667, 2.6864088887434816, 0.367886282823684, -1.0552300816108209, -1.2977248383137816, -0.4373377158355522, -0.3887389921950171, 1.8116122437918427, -0.19800003213266967, -1.958469798116974, 0.4991519486476517, -0.6757856282109829, 0.921786609609046, -0.3525533285352886, 1.6884050369178396, 0.3268834090185272, 1.2415636109909713, 0.7710569260648837, 0.1033092263907203, 0.040898764036651644, 1.4112285236900397, 2.845760914712693, -0.2279823802846287, 1.9196429698578183], [-0.36092430770916806, 3.549188148394607, 1.7763607031064415, -0.08383072630938332, 1.592020929804851, -0.9407703307761207, -0.595296557820727, -0.8297814518863523, -0.8006667407158493, 0.5753328064459666, -0.3567556188324051, -1.0569198731733145, 1.6944582713277652, -1.570005351204192, -0.034233439421813644, 0.9812834043513455, -0.15436684394700037, -0.13032054807801682, 1.3094776691945775, -1.7758626961540454, 0.2849408278446313, 0.26649449096621847, 1.0680495870371445, -1.3443263892851125, -0.35172135129713883, -0.8337648461834454, 1.3986659505559889, 1.146630204421366, -0.18570364558776117, -0.43139581110778186], [-0.9927690610134418, 0.07059888691616442, -1.2278714733137155, -2.290044065444438, 0.15467300606150353, -0.4198718342053813, -0.23211038100545578, -0.018067264256982046, -0.9931353306576478, -0.38893884922726085, 0.33557530508247607, -1.4575710986012944, 0.3429586644599193, -1.0177629439962526, -0.27913782597442666, 0.7519225211055631, -1.243362820261192, 0.6441287701706431, -0.4358780094054754, 0.8311108011959135, -0.1232410282239835, -0.7439811229703202, -0.13874671805345942, 0.7098301121157626, 0.794941624479717, -0.5955681437224764, -0.03862441426049846, 0.4966144194755207, 0.6070880935918438, 1.0297419723620493], [0.7883078985463747, 1.2973003518765545, 0.8356658842819635, 0.9269184079984685, 0.9201547356025264, -0.9493589307749001, 0.49753528720749907, 0.6561619536273072, 1.0542697597832136, -0.8916043477713645, 1.6248671998755846, 0.974571080190263, 0.30889301262544866, 1.8398300932353695, -0.8263195918119155, -0.20215037612725767, 0.07562695004454291, 0.76302767288162, -0.8661998144851324, -0.6385988168735562, 0.5516001392200021, 1.4215762308796103, 0.4071224030883038, 0.4306334060547184, -1.1293193881421462, -0.3645062489598523, -1.1173720087748724, -0.5750689933285842, 1.2802148325984593, 1.3630472887455212], [-0.966393484243135, 1.1225615321449502, -0.10952988760256557, -0.4130823412885783, -0.5891457523841075, 0.5438820428476748, 0.7433096361259963, 1.9538137166424978, -0.29337173150248913, -1.3942515756616143, 0.697403033464878, -0.34904173317525217, -0.39014890148651193, 0.6072241723810254, -0.024456013077328007, -0.2208834206715114, -0.2199784462761048, 0.26756614703875675, -1.5576052424954954, -1.0633926960667177, 0.4089700986151042, -0.45657503544088623, -0.17444494440515604, 0.5018812994188199, 0.028498854117333113, 0.7649971187753752, -1.1436323634032561, 1.5313801556364868, 0.04246967325226516, 0.46509372682138106], [0.6717529508414404, -0.18624353503884175, -0.2100991424577779, 0.4521689854913738, 0.5469331028476496, -1.497352448319457, 1.2809409682376942, 0.02212509638238069, 0.009014450665144539, 0.378258282255288, 0.36220818936160043, 0.5134436732661933, -0.16945239273282683, -1.5216208836340384, -0.272631871095594, 0.28457204547234793, 1.714607006395362, 0.17826920945689842, -0.667984397166213, -0.490311693352929, -0.464961526893859, -0.4821255236639504, -0.01616126213510335, -0.36963859168022106, -1.1617623636005385, -1.9403976300926116, 0.4427002013655984, 0.452899141104456, -0.4163072706207983, 1.8486191789222122]], "biases": [1.4280551760438889, -1.9445192923490957, -3.547651600091895, -1.8119321920535658, -1.8757400454283495, -2.4387969576508315, 0.4451966519235407, -0.8911885118000801], "activation": "sigmoid"}, {"type": "FC", "in_shape": 4, "weights": [[3.268642127732204, -2.308390136047614, -2.0147757931556693, -1.283453803934617, 1.4503141462626914, -1.1217395546343942, -0.692592543503712, -0.8816470193170014], [-1.4807058714422, 2.029099846346487, 3.3764493030029095, 0.8973124865451114, -0.18863213710825832, 2.1824202376632726, -0.187211919188329, -1.2376912634209223], [-0.14896701373393845, 1.3659260375285383, -0.9818621216523096, 0.017010672507655575, 0.3908197632375675, -0.8519829345744689, -1.4599131743106815, 0.24235280556906352], [1.584979702639272, -0.21363390747945568, -0.7668909526000345, -0.4633923152628784, 0.01717563841235333, -2.4740278082868987, -0.4377685434067288, 1.0372997149073344]], "biases": [2.548485566624028, -2.884226945770956, -0.6797017574757346, 0.9224992049043449], "activation": "sigmoid"}, {"type": "FC", "in_shape": 2, "weights": [[-4.189216451886412, 4.529612059268576, 0.06288490766505038, -0.6372822811398179], [1.9975510078031893, -3.8370989213752136, 1.9370679024773771, 3.27740126299779]], "biases": [-1.0670823033886685, -1.5182968649374797], "activation": "softmax"}]