[{"type": "Input", "in_shape": 30}, {"type": "FC", "in_shape": 8, "weights": [[-0.49134740978636715, 1.1757660894805684, -0.4751050498127305, -0.46514040298358905, 0.5323164465744702, 1.883040799081566, 0.6618803515068922, -1.3908905539039222, -0.23717726548377735, 0.3552289754205203, -1.8956286231558448, 0.36392790522233026, -2.5172610374376583, -0.8953874295247567, -1.5453067973902632, 0.40487491851637175, -1.8515125667007117, 0.03484660532817834, -0.22880525194706652, 0.7469373523835086, -1.3256587120249863, -1.8736091187632153, 0.9476669855444987, -1.9238803548831829, -2.64615338897837, -0.9135709139307329, -0.37133177706839804, -0.31022083510463444, 0.018542700683736278, -1.0698526625167122], [0.2677279079925007, 1.6326833382278056, 1.6336218308065285, 0.05030484225298874, -1.069426559659526, -0.12488448884783908, 0.06543458986738071, 0.8823928803087965, 0.13236664324016548, 0.09976984310614792, -0.010837401258413395, -0.4553154422486381, 0.17651793134503613, -0.44614160695614774, 0.6214135584929437, -0.8904752831705144, 1.5326492387727952, -0.35919520575951475, -0.6663108441703722, 0.2698902974166435, 0.44766662620020303, -0.030326479176750284, -0.3015738446894333, -1.659235213258566, -0.2618721946736661, 1.4439120380804575, -0.20987709412699115, 0.22373912502730264, -0.6797608004812812, -1.1269507531934504], [1.8301230750600868, 1.0619638223179533, 0.9809137315101927, 0.24094235385739937, 0.5581526628815693, -0.7236720290178579, 0.3654339437004544, 0.6101609288211817, -0.9532688271195089, -0.3971222705504711, 1.1309110213941929, 0.43040324876228625, -0.5257598589128193, 2.254433096524197, 0.5909936654867194, -1.142028154784419, 0.6798993989707883, 0.5371873411736108, -0.7852689434390927, -2.808945748187194, 1.0743421238471507, 0.2816064984625017, 0.9490972460650783, 0.29707149390790666, 1.2028002890901086, -0.3891842351682866, -1.3237471392948996, 0.2936620096084395, -0.8299377844826944, 1.374879601049327], [0.19250178243222305, 2.213743035661976, 1.6269645687320133, 0.5721207035914074, 0.45561985271102146, -1.235786516790609, 0.06305033259770455, 0.7988660036452329, -1.1415565408775463, -1.710670235452848, -0.2739390276978732, -0.8297757908196375, 1.8169729316104293, -0.04724843754367627, 1.8686596532485242, -1.045158550755057, 0.8271190235542424, 0.041824746496548784, 0.23326354076100259, -1.9469617761705158, 0.781364249616905, 2.6973496902743395, 1.7743883161670284, 2.1082422370964853, 1.2003892913180705, 0.16742507209593008, 1.7508449016867074, -0.06727550215856673, 0.49647767013658595, 2.330654111426023], [0.9070536585810852, 0.3091510559409089, 0.5185051780226889, 0.01593418461899678, 0.6828572701637733, -0.5835703450190005, -0.7923803209619691, -0.5122972951470871, -0.7006152250335729, 0.3389578752162412, -0.3362230538837761, -1.5732849198906638, 0.7198127679648554, -0.4475017275848629, -0.44703970650495756, 1.6684666633826355, -0.1826717669666715, -0.2986178335249704, 0.504562935901659, -2.166451667366513, 1.1456638668283234, -0.1986563815700245, 1.6520954372318617, 0.5171415828827963, -0.42581596448041154, 1.1899924326215168, -0.5565147131405895, 1.1738233878914597, -1.5398494448000382, 0.8283472061585773], [0.12235791316769717, 0.23874759594216935, 0.9565820993971058, 0.4053642912374219, 0.009899073604884526, -0.30587261590972525, 0.5227551381543679, -1.2010317566556057, 1.0909485753651706, -1.0552866833394399, 0.5917932604687004, -2.22210006101091, -1.052575992179358, -2.4889405766851644, -0.9560303066271547, 0.8545988016536825, 0.27454289492991596, -0.4604733847270605, -0.1990362685462636, -0.3357694052259015, -2.0557507371189123, -0.4400609304348314, -0.3846735262900881, 0.7075164990327724, 0.16118619862635372, -1.1490671737460476, -2.3988011605892225, -1.992546754203363, 1.0448730756745452, 1.0939027732881368], [0.7721355038373269, -0.8968638745896317, 1.5672631571648676, -1.8258823128680408, 0.6005688126036258, -1.4570907276283984, -1.740616832494589, -0.5319366393629891, 0.2528696942823701, 0.5750917617631803, 0.4342550645639362, 1.6673888407050002, 1.0010676945382586, 1.1731453429155616, 1.1021144163137648, -0.8932169555745307, -0.48540086946965544, 0.2615865197842157, 1.6271202899907398, 0.3899517385250115, 0.7079603173825947, -0.22380080508369232, -0.14167071900940045, 1.696179338687808, 2.035879590211248, 1.7297491291006997, -0.5077562754523368, 0.05149826828137005, 0.5341097199400306, -0.4568918992655179], [0.7716101325463235, -0.751563487143694, -0.6732573999373677, -1.4383865446768718, -1.3702652197918872, 1.0429643879946802, -2.480876587800401, -0.5691082722764153, -0.044605607941071386, 0.5156750574236542, -1.9255874445771828, 0.4581945683143928, -0.4644097553137776, -2.6216424277339314, -0.9758773344462169, 0.5431400824370144, 1.3775573230160383, -1.5000356564462882, -0.2231106668418663, 0.8177938407274101, -1.6884227090437594, -0.3260750737660181, -1.4452506984579951, -2.324669540192911, -2.5623997759779362, 1.8347040607195564, -0.968200818015516, -1.2630645173683943, -1.6925479583325307, 0.31477125407682055]], "biases": [2.819710956566939, -0.9607968549256388, -2.2752829738191336, -3.6422414404406247, 0.3564567273368686, 0.42435358374082727, -1.4992508766050912, 4.695501695269532], "activation": "sigmoid"}, {"type": "FC", "in_shape": 4, "weights": [[-1.7860152956127375, -1.4271854586138002, 0.794741517000169, 3.94543608074409, -0.4293342818074942, -0.12204277730725616, 1.131155450543836, -3.544207317220047], [3.322331116764149, -0.14457495079828372, -2.270073497629016, -2.6917254941981033, -0.9821328029131371, 1.7555858081719522, -0.9611346727727561, 4.510728818222469], [1.142758481181572, -0.6642978662741716, -0.37704655506648027, -2.07703660381954, -0.871276765495889, -0.2744282015695192, -0.4427807466683003, 1.4848186611638747], [-3.158299624245852, 0.876824267072174, 2.012419359181475, 0.03673693445791278, -1.9910319171407587, -0.8813081082570359, 2.279446147942709, -1.4422085216719116]], "biases": [-0.7122015517668214, 0.886519611716348, 0.5285103120228805, 0.9358759422899938], "activation": "sigmoid"}, {"type": "FC", "in_shape": 2, "weights": [[-3.217602873077619, 4.362290133138393, 1.6671300693198277, -1.5068687857913747], [3.6923986026693814, -3.117263458824873, -1.2355798944835472, 2.1822131113012]], "biases": [0.43723871435197736, 1.8951568357651654], "activation": "softmax"}]