[{"weights": [[0.6787197824110165, -0.06019058428343178, 0.8285379019159376, 1.6464785079700608, -0.09682558493009877, -0.07930768789803423, 1.6910058901688612, 0.8986535798848275, -0.34887670383765135, 0.6513884968642878, -0.419972107499367, -0.37497585961949653, 0.2903824318363005, -1.8817211882619314, -1.6897521244017755, -0.4464544195267769, -0.9705515732094242, 0.42102093278890995, -0.875608260077709, -1.349951488685036, 1.6163671098507832, -0.12133766364987299, 0.21597554422462176, -1.3321041170813015, -0.44041955938296334, 0.24527707597446038, -1.0370041244046118, 0.5755353964263604, -0.5454000594463835, -0.20508592658102845], [-0.6536776253870984, 1.5709893259261845, -0.06667934626225527, -1.1216482227053939, 0.716451006519769, -1.2315106848300945, 0.10904154055496264, -2.112606288600864, -1.3954585053950739, 0.22857956659390471, 0.5731243252102971, 0.16001161412266535, -0.23865728894529145, -0.39356142931985827, -1.5027380081586008, -0.6185022840642773, -0.4364585329731421, 1.0287974689879926, 0.3614932883964656, -1.6957998217752959, 0.18534143543988751, -0.660156373563166, -0.7971936021671543, 0.49808647732240346, 0.8098880327491884, 0.9025416553871092, -0.9267448167681919, -0.4834908300795753, 0.20492345623533498, 0.9426585593341408], [-0.6746334087605381, -0.37523186280230003, -1.3034854654823764, -1.3676989108751658, 0.6503607842553062, 1.2390545579711063, -0.27224880626873377, 0.7423213455121931, 0.19368721843777936, -0.6484304763446816, 0.21368335670952873, 1.532434912785575, -0.15970873673550948, 1.4622014544511848, -2.674740547499619, 0.8200217500012577, 0.06960140559617223, -0.3903747206178142, 0.015133279062113973, -1.9650980723552927, -0.46020029185178196, 0.1595872721436563, 1.2512237371983645, -0.7028635837659989, -1.0416578444220137, -0.5934810716816078, 0.758150712502303, 0.025450873107150045, -0.7071621366754219, 0.4662670623437973], [0.031181535976897098, 0.025868607507090594, -0.7771957933982262, -0.5399515594349159, -0.5703488315183192, -1.3009522923083012, -0.0829435148543961, -0.30956055256295356, -0.11343064731474722, 0.1761235112508475, -2.0129063795336544, -0.25030946449724745, -0.7702881417932045, -1.1710946531923736, -0.3658929452545879, 0.8723266776739366, 1.989117412716579, 0.1485219152929059, 0.18226753569103546, 0.27421872125116264, -2.37050438458404, -0.8848782155401517, -0.3206137173070221, 2.0238599034356692, -0.8942923050714368, 0.38869320367580923, -0.2680739956181528, -1.6610897070575235, 0.6210849997981853, 0.8177158819136682], [1.0020107008150088, -0.7317111013781058, 1.6203443282969392, -1.206607096606601, 0.6860714712980884, 2.355045452144297, -0.7265403365469076, -0.24220439938987287, 0.1961394368448076, -0.5495493191411809, -1.4147975177789662, 0.04677868857463166, -0.945017568476278, 0.5755175687247969, -0.9173871386477652, 1.5669856446493304, -0.7622583072560419, -0.24393238136729253, 0.8159709570067702, -1.2584294463463488, 0.49675828339247796, 1.5153982669593005, -1.3477042685752323, 0.39721376404548653, 0.44945434945127577, 0.9374930562904696, -1.0185709050543021, -0.9434000193136671, 0.6632010002928203, 0.3538818707551045], [0.26820884612293444, 0.389453365870675, -0.6615045997530934, 0.265019218440908, 0.2549705285410747, -0.7268952588986941, 1.9043609363972478, 0.5264154336518463, -1.234428505795832, 0.5868083782827436, -0.9250903030418782, 0.7628810340164155, 1.1975873635800895, -0.7858549908834056, 0.9382869556312166, 0.37884894981005696, 0.8173779419999069, 1.893582541608369, -0.2803356273462686, -0.780400241967549, -0.8442815265225361, -0.782018699697348, -0.03672694343790644, 0.3881639907221744, 0.2620805254496466, 0.8163084256308993, 0.03582883327150711, 1.4910157459236089, -0.2768132859874555, 2.6927911965389817], [0.7082523348380944, 0.5304617378013843, -0.964462662040231, 0.8327402414287693, 0.016659767467362148, 0.4615186953199111, 1.1472570074499953, 0.9113111303537214, -0.742957654764756, -2.276649706751605, 0.5155398593975913, 0.5152122319631068, 0.9075185248030861, -0.6360670973297262, 0.5261714277967706, -0.41914260827990807, -1.0625077371058904, 0.14950322007290787, 0.1259403601248331, -1.7310592760283452, 1.0659287647537996, 1.807579121807681, 1.6844223793685698, 1.7669010787628139, -0.3059676908379915, -1.1712398575162062, 0.8404387654856408, 1.280049935245757, 1.1879927039732325, 3.6264801504679576], [0.5754306761982668, 1.1969131044573345, 0.958809069168677, 0.6712031922591646, -0.2950284229781698, 0.720249769064594, -0.7388892697503961, -0.18601388079326037, -0.450019323355524, 0.02645604709621003, 2.3683136510617913, -1.908769683063924, 0.7251144675149646, -1.5767438423819857, -0.4272230756562412, 1.0342461045556401, 0.058844031628060754, -1.0732290109130973, -0.6660801911219963, 0.6414942709976965, -0.69230554952881, 0.257209562267533, 0.07705213658602071, -0.6123410699789761, 2.2117855219284026, 0.5818880118211798, -2.0228164159592588, 0.21033210515712872, -0.5982091866853809, 0.8146047421988792]], "biases": [-0.3966127006978382, 0.04966753325955171, 0.4247181352677022, 2.2404468909474677, -1.3624601352593881, -0.5342511387809732, -3.0528556277796426, -0.7649079858864861], "activation": "sigmoid"}, {"weights": [[2.185972117431724, 0.27118697786467844, -1.0448222513316467, 0.6405644994684004, 2.0973024136584475, 1.5007413701279368, -0.8598950245167801, -0.14368624533705898], [0.946248334777336, -0.03081179266447553, 1.1294274771349437, 3.0892538497087854, -0.3142363384153738, -0.08173822492346479, -5.221076002000226, -1.4247990857897175], [-0.14060259959342908, -1.5405612256485617, 1.2166006414610686, -2.841478031465489, -0.7663233026669679, 0.08349689900689816, 2.603219790447577, -1.1774715252630676], [1.5919349695919005, -0.10506602105143398, -0.9339317209905674, -0.12467251222615094, 0.20257887058006077, -0.12916580780544454, 1.0943907196773774, 0.03741261610815889]], "biases": [0.34482720680031337, 1.7171976646093519, 0.919950389251044, -1.0654118796549046], "activation": "sigmoid"}, {"weights": [[2.0666848782186436, -5.578592436970615, 2.2400838090237256, 1.1112142186399205], [0.3473403641726649, 3.0038051176275093, -2.599991154416577, -1.0158979468141824]], "biases": [-0.40419248556441034, 0.664429825641224], "activation": "softmax"}]