[{"weights": [[-1.1052170495072229, -0.9704111902858278, 0.021226884924674505, 0.1752826639578665, 0.9416652019191493, -1.2688707051063568, -0.2570025547479668, -0.5943554253491983, -0.4219963698620557, -0.6297494925014565, -0.8810846349845515, -0.6493686663522419, -0.034128845971183465, 0.740570522255345, -0.5110044732179323, 0.8272582144085363, -0.9599407056063709, 0.4468767514475334, -0.4023198470053058, 0.552585071112484, 2.013121970084886, 2.218436241766425, -1.4679942818465959, -0.9554423861111829, -1.3700295757170857, 2.3998903051382823, 1.2558314398246002, -2.1845850652311687, -0.14064734576530902, -0.435022178526713], [0.0995779180214793, 0.5239564777111455, 1.2482735550377295, 0.9304512730027462, -0.14616866164891068, -1.0830711119952505, -1.0997660314593978, -0.143334779915556, -0.619942233731534, 2.436625639095756, 1.5523504967897055, -0.7265455266442835, 0.9982604422160406, 0.3946343153608792, -0.21865303015770332, 0.29138847370356663, -0.9115161459942589, 2.182387058542649, -2.91162505696002, 0.24796592180780766, -0.5440473358164584, 0.8261804981410825, -0.5898246470818119, 0.11790926499531557, -0.3211884703669472, -1.3805750051648495, -0.3378710409123384, 2.1347609340659175, 1.7497144666335445, -0.12628160308064945], [-0.00443795981802807, -2.5173973004714227, -1.7406202974557181, -0.7027971956216867, 0.4225689003073714, -0.6477145286596041, 0.38426230278288287, 0.2478610714285389, 0.07988611453651531, -0.6857469620870499, 2.226556352616663, 0.9265400711834062, 0.15495630557987625, -1.0763500655921319, 0.624037844668753, -1.1693450679995416, -1.4642704735009646, 0.3105483024025336, -0.7194771823236009, 0.14769333933822404, 0.02953123760844238, -1.3694760324454873, 0.07273604302140854, -0.3262941026838141, -1.1777230401920546, 0.08079457275656186, 1.0963014459826925, -0.14231197516244884, 0.5058933415861656, -0.5176931772135869], [-1.7348432446687574, -0.7018421823041693, -0.2889230915743298, 1.4409509231250175, 0.6948310859822935, -0.481662485685524, -1.0619156362815585, 0.20952025412044797, -0.6866939276670043, -0.009315960944220644, 1.1064317072127041, 0.3795058522371299, -0.2952818434736041, 0.9576112186016155, -1.6934370759395396, 0.062138198719134466, -0.36720688098382653, 0.2538731038394793, -0.7071584812855397, -1.8058188226283631, -1.577551957548889, 0.29513541404567456, 0.17218701997410027, -0.5795823488602474, -1.194111998479189, -0.2258442390576574, -0.24835079665584345, -0.18559352392490522, -0.19397178866699233, 1.4495743214071637], [0.26092240722667676, -0.7142142612619811, 0.015069973337579534, -1.335769065944952, -0.5514563729284876, 0.5168992257916517, 0.10566639327755015, -0.8456059844672942, -0.7053929312157422, -4.899417615064626, 0.6571485006254296, 0.5055944303283646, -1.4950853519998764, 1.8060578144966566, 0.8052315411935643, -0.924021890986766, 0.767780486627625, 1.7443937672540943, -1.3251570561988335, 1.0655961395014786, -0.32176444934682746, -1.545514626575578, -0.8142494833556059, 0.848441089421362, -0.2775695990427996, 0.10569719787287297, 0.9265244364063312, -0.42874164180323626, -0.7534494620992688, -0.19343130829471233], [0.8718636160501293, -2.1345409183786574, -0.6059932581107927, -1.3700152665626486, 0.08061594272473002, -0.36001634967043644, -0.32109381978473356, -0.5072678436323151, 1.4101392938314046, 0.7955948484063216, -0.0876459418550903, 1.445596677970847, 0.39266149164079395, -1.5551592405461887, -0.7984151335288858, -0.1211915965074282, -0.5706202361468262, -0.32424278603182366, -0.34327802327384915, -0.04588906738809198, -0.5071498320010286, -0.1506588320489109, 0.01672354895460989, 2.2574208465942736, -1.0076182722352292, 1.5167397788223254, 0.8692732401583803, -0.5157884517067214, 0.8278736884791775, -2.112615960660519], [-1.745887849704481, -0.3349560588230126, -0.5783043349013064, -0.8351998187627514, -1.1772710010317204, 1.0011487075051577, -2.0717611527257596, -0.7638541733061411, 1.063739974407515, 0.6239164298381584, 0.7139502502853049, -1.8674654703122726, 0.8582527573538673, -0.8347344888078282, -1.218860414642424, 1.7859819196017166, 1.9608940192733089, 0.5023457889519948, 1.7596191727916635, 0.9404120889707533, 0.5272577640866586, -0.15814642238408513, -1.3550216706948626, 0.14394447772966432, -0.6934399926546365, -0.7901549082932127, -1.3107802125220984, 0.1972458767215268, -0.49520873438073854, -1.341272814587136], [-0.7142042580738656, 0.30782570493767947, 0.1827951897597834, 2.3895565300036936, -0.008824013000267989, -0.41567379325976345, 0.5255790608058786, 1.296906914466532, -0.17553618455960168, -1.0875912666486305, 0.8769528398718788, 0.1430888568098663, 2.074384372751622, 1.087138765047295, -1.8126219027695272, 0.35606633207447647, -0.5788663420175106, -0.7607847234400462, 1.6572587593347867, 0.27154813232405434, 0.15045819901903362, 1.7705204526723748, 2.512300383845725, 1.4369337419022512, 0.9712608460404448, 0.6245838709598086, -0.11092661327140164, 1.3810916577376355, 0.4387490005197927, 0.2862107135024673]], "biases": [0.2813663893116284, -0.3944641179074477, 1.4846142874003798, -0.9464537004147671, -0.6430088804680261, -0.22135935011533897, 1.6768978079624361, -3.6320843828380553], "activation": "sigmoid"}, {"weights": [[0.23282054815399728, 2.292837668347191, -1.095988561168751, 2.060539083633262, -0.027534710825970414, -0.07782553675218525, 1.0622663203340545, -0.43005847502284267], [2.168305199413807, -0.4278391270638684, 0.9603760979736253, 0.10889790912868831, 0.11234811818178607, 2.407260845377889, 2.026769361378378, -4.691869771404321], [0.21006103784289998, 0.2765437724788725, -0.7414749069151803, 0.07168479709389193, -0.3509470841067011, 0.5616776322280783, -2.24755794603516, 2.19808960823072], [0.4551889101322236, -0.6079977790977861, -0.08663181824578747, 1.7389275335868648, -1.1872746576681685, -0.41681915421574717, 1.270796725132947, -1.3561807364273761]], "biases": [-0.3451505214782264, 0.19190843375827565, -0.053653746155994685, 0.06426543206243335], "activation": "sigmoid"}, {"weights": [[0.5689681429937243, -3.460271664964635, 2.9732905550960433, -1.2437277108381535], [-0.7790217523886442, 4.650684344348301, -2.57639777906759, 0.9754166312803025]], "biases": [0.2873491772143112, -0.1279044569184683], "activation": "softmax"}]